{
  "mu": [
    1.0,
    0.010831976309418678,
    0.012193979695439339,
    0.012035129591822624,
    0.011901602149009705,
    0.011599650606513023,
    0.011164666153490543,
    0.001362060778774321,
    -0.00015883053129073232,
    -0.00013351190136745572,
    -0.0003019781725015491,
    0.012043620459735394,
    0.1278495341539383,
    0.027793852612376213,
    23.10951805114746,
    0.009509635157883167,
    0.009475363418459892,
    0.08684352040290833,
    0.23800723254680634,
    0.01766711100935936
  ],
  "std": [
    1.0,
    0.9018399715423584,
    0.4674609303474426,
    0.46739256381988525,
    0.4674045741558075,
    0.467374712228775,
    0.46726661920547485,
    0.7638097405433655,
    0.033933088183403015,
    0.03371410071849823,
    0.0603654570877552,
    0.46671274304389954,
    0.2640712261199951,
    0.44931817054748535,
    9.544316291809082,
    0.40165242552757263,
    0.3680141866207123,
    0.21622832119464874,
    0.8700219392776489,
    0.7635869383811951
  ],
  "layers": [
    {
      "w": [
        [
          0.17095601558685303,
          0.15347006916999817,
          -0.08121443539857864,
          0.17463965713977814,
          -0.07666695863008499,
          0.015922533348202705,
          -0.13120748102664948,
          0.25559014081954956,
          0.12624341249465942,
          -0.05879799649119377,
          0.19080224633216858,
          0.012755084782838821,
          0.21185678243637085,
          0.037172600626945496,
          0.19705148041248322,
          -0.038738496601581573,
          0.166136234998703,
          0.08190267533063889,
          -0.1353243887424469,
          0.36014270782470703
        ],
        [
          -0.10302384197711945,
          -0.023230450227856636,
          -0.08833956718444824,
          0.15202057361602783,
          -0.16941742599010468,
          -0.1043173298239708,
          -0.050924867391586304,
          -0.1454744040966034,
          0.029143663123250008,
          -0.17520233988761902,
          0.14726731181144714,
          -0.18557269871234894,
          0.21222560107707977,
          0.01758311688899994,
          -0.11881446093320847,
          0.15247434377670288,
          0.045866500586271286,
          0.23498062789440155,
          -0.036452945321798325,
          -0.09886541217565536
        ],
        [
          0.06007949635386467,
          -0.026884308084845543,
          0.09986529499292374,
          0.20373865962028503,
          0.13858801126480103,
          -0.08557039499282837,
          0.1204272210597992,
          0.012485947459936142,
          0.09656879305839539,
          -0.05018553137779236,
          -0.20140507817268372,
          -0.08001977950334549,
          -0.29263487458229065,
          0.15044374763965607,
          -0.01221586111932993,
          0.08150278776884079,
          0.008554274216294289,
          -0.0644131675362587,
          0.16611620783805847,
          -0.1570330411195755
        ],
        [
          0.01407911628484726,
          -0.1638965904712677,
          0.04868171736598015,
          -0.08983656018972397,
          0.06138193607330322,
          -0.06675942987203598,
          0.10876667499542236,
          -0.11923620849847794,
          -0.030839666724205017,
          -0.020298538729548454,
          0.03596460074186325,
          0.06110987439751625,
          0.34001320600509644,
          -0.12430829554796219,
          -0.31378090381622314,
          -0.1206943467259407,
          -0.05678896605968475,
          0.08178380131721497,
          0.1400233656167984,
          0.2201613038778305
        ],
        [
          -0.11547622084617615,
          -0.17473095655441284,
          0.09890729188919067,
          -0.11002575606107712,
          0.1133127212524414,
          -0.07870529592037201,
          0.10149938613176346,
          -0.11490900814533234,
          -0.10504893213510513,
          -0.001153527176938951,
          0.03867962583899498,
          -0.07760275900363922,
          0.1787155419588089,
          0.13570274412631989,
          -0.16927698254585266,
          -0.10758758336305618,
          0.21560588479042053,
          -0.06697194278240204,
          -0.036699362099170685,
          -0.28477826714515686
        ],
        [
          -0.1280529499053955,
          0.08191027492284775,
          0.002637281082570553,
          -0.12009812891483307,
          0.0486469566822052,
          -0.11899633705615997,
          -0.1494949907064438,
          -0.04738464951515198,
          -0.07984600216150284,
          -0.139137402176857,
          0.12514720857143402,
          0.08146623522043228,
          0.11156392097473145,
          -0.08948864787817001,
          -0.09567207843065262,
          -0.04571298509836197,
          0.0698721632361412,
          -0.16156476736068726,
          -0.09397969394922256,
          -0.1776961386203766
        ],
        [
          0.0006196721806190908,
          -0.04751654714345932,
          0.020077820867300034,
          -0.11863832175731659,
          -0.12063087522983551,
          -0.10197621583938599,
          -0.04593169689178467,
          -0.20169904828071594,
          0.12529431283473969,
          -0.06564447283744812,
          0.1348336935043335,
          0.1034783124923706,
          -0.08470921218395233,
          0.15540245175361633,
          -0.17147064208984375,
          -0.04266943037509918,
          -0.14210152626037598,
          -0.13843168318271637,
          -0.054521460086107254,
          0.1147029921412468
        ],
        [
          0.08705529570579529,
          -0.1908506453037262,
          0.17721933126449585,
          -0.1555146723985672,
          -0.02612478658556938,
          0.04892870783805847,
          0.11367030441761017,
          0.18297947943210602,
          0.14190465211868286,
          -0.10325369983911514,
          -0.003887977683916688,
          -0.08542320877313614,
          -0.04819439724087715,
          -0.026442168280482292,
          0.3416026532649994,
          -0.15800908207893372,
          0.14246365427970886,
          0.10553637892007828,
          0.05769499018788338,
          -0.11339003592729568
        ],
        [
          0.20324774086475372,
          0.08245307207107544,
          0.041153911501169205,
          -0.1845770627260208,
          0.10744846612215042,
          -0.0194404236972332,
          -0.0925530418753624,
          0.1434432864189148,
          0.05058463662862778,
          -0.07834243774414062,
          -0.11505246162414551,
          0.002137229312211275,
          0.1112380102276802,
          -0.0841296836733818,
          -0.08045601099729538,
          -0.06577687710523605,
          -0.17315180599689484,
          0.048998042941093445,
          0.14838194847106934,
          -0.2173231840133667
        ],
        [
          0.05193283408880234,
          0.13361820578575134,
          0.050293516367673874,
          -0.06894232332706451,
          0.1265878528356552,
          0.12808260321617126,
          0.07509618997573853,
          -0.05450129881501198,
          0.008630027994513512,
          -0.02931745909154415,
          -0.043280526995658875,
          -0.056530628353357315,
          0.0964774638414383,
          0.1875196099281311,
          0.10638898611068726,
          -0.032041147351264954,
          0.008614572696387768,
          -0.03740489482879639,
          0.08744677901268005,
          0.08970987051725388
        ],
        [
          -0.20309238135814667,
          -0.06391829997301102,
          0.20224906504154205,
          0.10244721919298172,
          0.0023683016188442707,
          -0.1266862154006958,
          -0.14861483871936798,
          -0.2125520259141922,
          -0.030099153518676758,
          0.03592054173350334,
          0.03266967460513115,
          0.11748934537172318,
          -0.21050114929676056,
          -0.18381784856319427,
          -0.11167653650045395,
          0.2260235846042633,
          0.044437624514102936,
          0.0027090341318398714,
          0.04186850041151047,
          -0.11673375219106674
        ],
        [
          -0.14473076164722443,
          0.15197916328907013,
          -0.11232081800699234,
          -0.052432361990213394,
          -0.22570671141147614,
          0.15121304988861084,
          0.18245971202850342,
          0.10365290939807892,
          -0.09767838567495346,
          -0.13197630643844604,
          -0.121642105281353,
          0.1596127152442932,
          0.09795603156089783,
          0.19904875755310059,
          0.10292387008666992,
          0.06736345589160919,
          0.013132060877978802,
          -0.14409413933753967,
          -0.24507276713848114,
          -0.4541972875595093
        ],
        [
          0.09153611212968826,
          -0.0820150300860405,
          -0.038477011024951935,
          -0.12402414530515671,
          -0.03917234390974045,
          -0.1415885090827942,
          -0.11717693507671356,
          0.07358632981777191,
          -0.09475657343864441,
          0.07687573879957199,
          0.04972035437822342,
          -0.15977807343006134,
          0.07249117642641068,
          -0.1589440405368805,
          -0.06813362240791321,
          -0.17273816466331482,
          0.15281492471694946,
          -0.0909055843949318,
          0.11336532235145569,
          0.05466378107666969
        ],
        [
          0.1597520112991333,
          -0.1399850994348526,
          0.18759359419345856,
          -0.07727368921041489,
          0.11360607296228409,
          0.23576655983924866,
          -0.007899844087660313,
          -0.044454749673604965,
          -0.010076933540403843,
          -0.13679227232933044,
          0.03423231467604637,
          -0.19336259365081787,
          0.09476957470178604,
          0.0005463126581162214,
          0.327367901802063,
          -0.05563792213797569,
          -0.19637909531593323,
          -0.014089827425777912,
          0.1283048540353775,
          -0.21876317262649536
        ],
        [
          -0.0507550910115242,
          -0.15877878665924072,
          -0.01607777737081051,
          -0.10757529735565186,
          -0.089582160115242,
          -0.07056393474340439,
          -0.20966476202011108,
          0.25027772784233093,
          0.16237445175647736,
          -0.06921397894620895,
          -0.04754772037267685,
          -0.0886596217751503,
          -0.12133929133415222,
          -0.17564791440963745,
          0.043045975267887115,
          -0.12082411348819733,
          -0.11303123086690903,
          0.06688148528337479,
          -0.04577300697565079,
          -0.048887185752391815
        ],
        [
          0.007184753660112619,
          -0.05151144787669182,
          -0.040671512484550476,
          -0.06631311774253845,
          -0.1435423195362091,
          0.20900355279445648,
          -0.012032197788357735,
          0.14132574200630188,
          0.0027059102430939674,
          -0.03559376299381256,
          0.0805886834859848,
          0.14152361452579498,
          -0.15617121756076813,
          0.04672137647867203,
          0.14239312708377838,
          0.06188644841313362,
          0.16257323324680328,
          0.24789239466190338,
          -0.02284184843301773,
          0.07341992110013962
        ],
        [
          -0.15541456639766693,
          -0.03482568636536598,
          0.17914244532585144,
          0.13068465888500214,
          -0.12424570322036743,
          -0.16014201939105988,
          -0.13135021924972534,
          -0.1549687534570694,
          -0.07111463695764542,
          -0.007158423308283091,
          0.1566268503665924,
          0.053045425564050674,
          -0.1743554174900055,
          -0.1757824718952179,
          0.12714987993240356,
          -0.15561559796333313,
          -0.01889413222670555,
          0.11678987741470337,
          -0.09013278037309647,
          -0.10075544565916061
        ],
        [
          -0.019463736563920975,
          -0.10842029005289078,
          -0.13565829396247864,
          -0.21923834085464478,
          -0.20281043648719788,
          -0.1487676501274109,
          0.16554170846939087,
          -0.05750822648406029,
          -0.07714292407035828,
          0.008670787326991558,
          -0.026535270735621452,
          0.101100854575634,
          0.21506467461585999,
          0.07990583777427673,
          -0.2717237174510956,
          -0.029326997697353363,
          0.12785013020038605,
          -0.008625941351056099,
          -0.0897424966096878,
          0.21798019111156464
        ],
        [
          -0.08363516628742218,
          -0.10164451599121094,
          -0.17647123336791992,
          0.037757620215415955,
          0.12685082852840424,
          0.07190465927124023,
          0.06082967668771744,
          -0.20467674732208252,
          -0.1413058489561081,
          -0.011072719469666481,
          0.12012818455696106,
          0.15588858723640442,
          -0.24218641221523285,
          -0.038874588906764984,
          -0.13220800459384918,
          -0.09651126712560654,
          0.054157156497240067,
          0.06871374696493149,
          0.21038079261779785,
          -0.180474191904068
        ],
        [
          0.14950691163539886,
          -0.19347813725471497,
          0.05567610263824463,
          0.15783964097499847,
          -0.029396405443549156,
          0.17415577173233032,
          -0.19859367609024048,
          -0.01967955008149147,
          0.04189881682395935,
          -0.0789051428437233,
          0.013490349985659122,
          -0.12385275214910507,
          0.1996212601661682,
          0.1762242317199707,
          0.0005712316487915814,
          -0.14197374880313873,
          -0.1802518665790558,
          0.024553358554840088,
          0.1022944375872612,
          -0.07103468477725983
        ],
        [
          -0.0625646635890007,
          0.18784375488758087,
          0.04731240123510361,
          0.04618265479803085,
          -0.01891826093196869,
          -0.16060371696949005,
          -0.18258905410766602,
          -0.16113577783107758,
          -0.024223895743489265,
          0.0825972631573677,
          -0.0029954849742352962,
          -0.05352586507797241,
          0.2764813005924225,
          -0.15041784942150116,
          0.19256055355072021,
          -0.09357210248708725,
          -0.0762379989027977,
          0.1597035527229309,
          -0.1932666003704071,
          -0.0805392786860466
        ],
        [
          -0.010800134390592575,
          -0.042300742119550705,
          -0.13806794583797455,
          0.16647642850875854,
          0.2112729549407959,
          0.06635931134223938,
          -0.02750171720981598,
          -0.24080054461956024,
          -0.05250289663672447,
          0.02097686566412449,
          0.045210156589746475,
          0.0033731749281287193,
          -0.16758278012275696,
          0.12630972266197205,
          -0.25830674171447754,
          0.16869167983531952,
          -0.0689196065068245,
          -0.04075448215007782,
          -0.04851231351494789,
          0.027361037209630013
        ],
        [
          -0.06757361441850662,
          0.17398089170455933,
          0.01027655228972435,
          0.18378174304962158,
          0.22937029600143433,
          -0.09257470816373825,
          -0.16357748210430145,
          0.24827940762043,
          0.061598241329193115,
          -0.08671014755964279,
          0.0009834582451730967,
          -0.20729297399520874,
          -0.2607550323009491,
          0.06634361296892166,
          0.07792232930660248,
          -0.01897452399134636,
          -0.11854159832000732,
          0.3566801846027374,
          0.03864641115069389,
          0.11342506110668182
        ],
        [
          -0.012659231200814247,
          0.03584285452961922,
          0.059487566351890564,
          -0.17901252210140228,
          0.06159716099500656,
          -0.14749881625175476,
          -0.20069670677185059,
          -0.11151852458715439,
          0.18255551159381866,
          0.11705086380243301,
          0.08093537390232086,
          0.11062120646238327,
          0.2125786989927292,
          -0.004378960933536291,
          -0.20263780653476715,
          0.13622373342514038,
          -0.07456403970718384,
          -0.1287573277950287,
          -0.059445347636938095,
          0.0017895199125632644
        ],
        [
          0.11511202156543732,
          -0.10715298354625702,
          -0.14713414013385773,
          0.008170568384230137,
          -0.15764376521110535,
          -0.18462732434272766,
          0.06942477077245712,
          0.016891364008188248,
          0.11706265807151794,
          0.15456968545913696,
          0.01725003309547901,
          0.05585828423500061,
          0.07340408861637115,
          0.060768891125917435,
          -0.03290112689137459,
          0.02731512114405632,
          0.11017555743455887,
          0.2122648060321808,
          -0.10150773823261261,
          -0.21030545234680176
        ],
        [
          -0.05414970591664314,
          -0.06489907950162888,
          0.07136017084121704,
          0.20141206681728363,
          0.20921266078948975,
          0.1357336789369583,
          -0.14355657994747162,
          -0.1527831107378006,
          -0.006366434507071972,
          -0.0635414645075798,
          -0.039408061653375626,
          -0.17119629681110382,
          0.044658876955509186,
          -0.125775545835495,
          -0.13573315739631653,
          -0.16260018944740295,
          0.19323068857192993,
          -0.22013385593891144,
          0.16407260298728943,
          -0.006873780861496925
        ],
        [
          -0.026005201041698456,
          0.13166655600070953,
          -0.015274208039045334,
          0.14367392659187317,
          0.16345714032649994,
          -0.19200506806373596,
          0.10031042248010635,
          0.05939019098877907,
          -0.0153509471565485,
          -0.02745749242603779,
          0.05958934873342514,
          -0.10403882712125778,
          0.017420973628759384,
          0.25402867794036865,
          0.1370994746685028,
          -0.003862672718241811,
          -0.1939842253923416,
          0.10005846619606018,
          -0.16927553713321686,
          0.17010457813739777
        ],
        [
          -0.13574886322021484,
          0.0016574162291362882,
          -0.05657322332262993,
          0.026623472571372986,
          0.19550259411334991,
          0.012968532741069794,
          0.12046945095062256,
          0.11756115406751633,
          0.07354481518268585,
          -0.10122115164995193,
          0.0186654981225729,
          0.09607476741075516,
          -0.0636855810880661,
          0.10840610414743423,
          -0.16261500120162964,
          -0.15188415348529816,
          0.04977338761091232,
          0.02238835208117962,
          0.06789635121822357,
          0.17834703624248505
        ],
        [
          0.1526637226343155,
          0.22919976711273193,
          0.030894948169589043,
          -0.17021319270133972,
          -0.1329234093427658,
          -0.11385561525821686,
          -0.17942970991134644,
          -0.04525824263691902,
          -0.08167247474193573,
          -0.129266619682312,
          -0.10934851318597794,
          -0.19876648485660553,
          -0.09013005346059799,
          0.18566524982452393,
          0.1632624864578247,
          -0.03234655037522316,
          -0.031080443412065506,
          0.15121588110923767,
          -0.13597336411476135,
          -0.25745341181755066
        ],
        [
          0.13777074217796326,
          -0.16589991748332977,
          0.06640314310789108,
          0.2349829077720642,
          0.07260860502719879,
          0.08464472740888596,
          -0.13213197886943817,
          -0.05986260622739792,
          -0.0020451154559850693,
          0.028527021408081055,
          -0.03378795087337494,
          0.23127105832099915,
          -0.21140050888061523,
          -0.009059845469892025,
          -0.19718728959560394,
          -0.164312481880188,
          -0.02808605134487152,
          -0.20284175872802734,
          0.1216549277305603,
          -0.011720232665538788
        ],
        [
          -0.12051469087600708,
          0.12653577327728271,
          -0.14540699124336243,
          -0.02388910762965679,
          0.011134438216686249,
          -0.14150288701057434,
          -0.1050567477941513,
          -0.0034395644906908274,
          0.13463348150253296,
          0.08934399485588074,
          0.0473211444914341,
          -0.07227496802806854,
          -0.1937478631734848,
          0.045881468802690506,
          -0.003945451695472002,
          0.08638162165880203,
          0.18127582967281342,
          -0.09914082288742065,
          -0.16908960044384003,
          0.18586452305316925
        ],
        [
          -0.055148638784885406,
          0.014504182152450085,
          -0.15934129059314728,
          -0.09264050424098969,
          0.02709255740046501,
          -0.09544134140014648,
          -0.0017189908539876342,
          0.13780145347118378,
          -0.10843788832426071,
          0.05291588604450226,
          -0.06297963112592697,
          -0.07897768914699554,
          0.14213725924491882,
          0.08720274269580841,
          -0.053251348435878754,
          -0.04279320314526558,
          -0.1572135090827942,
          -0.11015229672193527,
          -0.1947161704301834,
          -0.03986214101314545
        ],
        [
          0.045628178864717484,
          -0.24685007333755493,
          0.1766676902770996,
          0.12071908265352249,
          -0.23330466449260712,
          -0.12787595391273499,
          0.05461018532514572,
          -0.00514169130474329,
          -0.026914944872260094,
          0.02307978831231594,
          0.12146703153848648,
          -0.1425277292728424,
          0.2471170723438263,
          -0.023387854918837547,
          0.0051741087809205055,
          0.16448158025741577,
          -0.03542633354663849,
          -0.09450072050094604,
          -0.03553549200296402,
          0.17840437591075897
        ],
        [
          -0.1659134179353714,
          0.031124278903007507,
          -0.2566772401332855,
          0.07032937556505203,
          0.046091482043266296,
          -0.020511861890554428,
          0.06457360833883286,
          -0.16839084029197693,
          0.04312523081898689,
          -0.058947354555130005,
          0.0002474722859915346,
          0.059012532234191895,
          0.30236828327178955,
          0.11190813034772873,
          -0.28782564401626587,
          0.11023275554180145,
          -0.12878012657165527,
          -0.023763403296470642,
          -0.09662843495607376,
          -0.14713288843631744
        ],
        [
          0.15816307067871094,
          0.024318525567650795,
          -0.15363141894340515,
          0.05407382547855377,
          -0.07898036390542984,
          0.19706791639328003,
          -0.13731537759304047,
          -0.20965512096881866,
          -0.12518064677715302,
          -0.004577392712235451,
          0.07713878899812698,
          0.2001703381538391,
          0.01816495694220066,
          0.2435324341058731,
          -0.0792655497789383,
          0.05688425898551941,
          0.0815461277961731,
          0.2115362137556076,
          -0.12752500176429749,
          0.2285681664943695
        ],
        [
          0.1354532688856125,
          -0.12178166955709457,
          -0.12045740336179733,
          -0.1970231533050537,
          0.04428232088685036,
          -0.19305922091007233,
          0.0649155005812645,
          0.15450257062911987,
          -0.11826016753911972,
          0.02597835101187229,
          -0.02268124185502529,
          0.09040375053882599,
          0.22006553411483765,
          -0.11077447235584259,
          0.12395170331001282,
          0.24031604826450348,
          0.14358852803707123,
          -0.1730005294084549,
          -0.008986479602754116,
          -0.015549544245004654
        ],
        [
          -0.05746648460626602,
          0.09089534729719162,
          0.04963483288884163,
          0.149652898311615,
          -0.10871058702468872,
          0.05110427737236023,
          0.06462430953979492,
          -0.13562002778053284,
          -0.16848139464855194,
          -0.07804372161626816,
          0.1626996248960495,
          -0.23856575787067413,
          -0.2047841101884842,
          0.12633217871189117,
          -0.026569556444883347,
          0.165165975689888,
          -0.17396250367164612,
          -0.08827951550483704,
          0.042458426207304,
          0.47721192240715027
        ],
        [
          0.13379262387752533,
          0.07923059910535812,
          0.10557211190462112,
          0.24617964029312134,
          -0.11153477430343628,
          -0.0726533979177475,
          0.15111881494522095,
          -0.18609510362148285,
          -0.09127982705831528,
          0.1560523957014084,
          0.01689060963690281,
          0.10510720312595367,
          -0.2164987325668335,
          0.030697735026478767,
          0.18122293055057526,
          -0.10765383392572403,
          0.022897154092788696,
          0.055876605212688446,
          -0.17233186960220337,
          0.2202368825674057
        ],
        [
          -0.11171631515026093,
          -0.054382093250751495,
          -0.049487773329019547,
          -0.13332588970661163,
          -0.21076183021068573,
          0.13156400620937347,
          0.06721536815166473,
          -0.18771205842494965,
          -0.07636139541864395,
          0.09086495637893677,
          0.050647806376218796,
          0.10042262077331543,
          -0.12602989375591278,
          -0.24229572713375092,
          -0.08381711691617966,
          -0.012952204793691635,
          -0.11686210334300995,
          0.0299913939088583,
          0.033821605145931244,
          -0.029814325273036957
        ],
        [
          0.030999017879366875,
          -0.11626073718070984,
          0.03719121962785721,
          0.06750873476266861,
          -0.1418757438659668,
          -0.23246139287948608,
          0.11630776524543762,
          0.1027895137667656,
          -0.0547780878841877,
          0.13470040261745453,
          0.05873825401067734,
          0.13041500747203827,
          0.1875818520784378,
          -0.16526596248149872,
          0.1628444790840149,
          -0.21392564475536346,
          -0.12340380996465683,
          -0.054785266518592834,
          -0.11400289833545685,
          0.23802775144577026
        ],
        [
          -0.044850971549749374,
          0.06765256077051163,
          -0.22025762498378754,
          0.10646534711122513,
          -0.08783039450645447,
          -0.18856853246688843,
          0.02541835978627205,
          0.1507844179868698,
          0.1609923541545868,
          -0.10899993032217026,
          -0.10769425332546234,
          0.022504424676299095,
          0.148727148771286,
          0.07168333232402802,
          0.06978558748960495,
          -0.03989913687109947,
          0.273514986038208,
          0.07556381821632385,
          -0.036460570991039276,
          0.17323695123195648
        ],
        [
          0.10924969613552094,
          0.1847423017024994,
          -0.13159167766571045,
          -0.11536946147680283,
          -0.07069576531648636,
          0.006052787881344557,
          0.12784922122955322,
          -0.12107733637094498,
          0.0870741531252861,
          -0.11667213588953018,
          0.1478278785943985,
          -0.01578516699373722,
          -0.1587769091129303,
          -0.10101237893104553,
          -0.18386104702949524,
          0.1178136095404625,
          -0.14022201299667358,
          0.024837225675582886,
          0.037690166383981705,
          -0.15642961859703064
        ],
        [
          0.06450385600328445,
          -0.21769845485687256,
          -0.1807837188243866,
          -0.23312346637248993,
          -0.10678648203611374,
          -0.12415573000907898,
          -0.012652362696826458,
          -0.054247017949819565,
          -0.01160379033535719,
          0.09289046376943588,
          0.06924249976873398,
          -0.11827551573514938,
          -0.14982099831104279,
          0.11296539008617401,
          -0.09962936490774155,
          0.12406207621097565,
          0.1364271193742752,
          0.1250821053981781,
          0.15781520307064056,
          0.1712522953748703
        ],
        [
          0.04734648019075394,
          -0.12697963416576385,
          0.2231745421886444,
          -0.081724613904953,
          -0.0800398588180542,
          0.21519170701503754,
          0.18718798458576202,
          0.052080072462558746,
          0.05379335582256317,
          -0.13999930024147034,
          0.015294543467462063,
          0.23892155289649963,
          -0.04373370110988617,
          0.06090836599469185,
          -0.01234713476151228,
          -0.06213013082742691,
          0.1255897879600525,
          -0.049452055245637894,
          0.14529544115066528,
          -0.0395740307867527
        ],
        [
          0.09769586473703384,
          0.0795164555311203,
          0.019847402349114418,
          0.13025884330272675,
          0.12910287082195282,
          0.1944541186094284,
          0.11565012484788895,
          -0.05962228402495384,
          -0.04280637204647064,
          0.002480659633874893,
          -0.04463867098093033,
          -0.07069383561611176,
          -0.07338571548461914,
          0.11329220980405807,
          0.241005077958107,
          0.03305887058377266,
          -0.12894251942634583,
          -0.18398220837116241,
          -0.09401243925094604,
          -0.10739446431398392
        ],
        [
          0.2010723352432251,
          0.09460704773664474,
          0.17835894227027893,
          -0.022624054923653603,
          0.02286825142800808,
          0.05927976965904236,
          -0.2377367913722992,
          0.04006345197558403,
          0.013343174941837788,
          -0.07435188442468643,
          -0.09200815856456757,
          0.17490848898887634,
          0.24539931118488312,
          0.08414459973573685,
          0.19212676584720612,
          -0.12459992617368698,
          -0.07264919579029083,
          0.08240729570388794,
          -0.04831034317612648,
          0.13074511289596558
        ],
        [
          -0.18482474982738495,
          0.10193721950054169,
          -0.09881781041622162,
          0.0471806526184082,
          0.2549569606781006,
          -0.037673406302928925,
          -0.041997093707323074,
          0.12305952608585358,
          -0.03338904678821564,
          -0.0622401162981987,
          0.16465456783771515,
          -0.05420602113008499,
          -0.15838679671287537,
          0.02673964388668537,
          -0.06257504969835281,
          -0.06555081158876419,
          -0.08537425845861435,
          0.13073484599590302,
          -0.03487000614404678,
          -0.08493269234895706
        ],
        [
          -0.17372266948223114,
          -0.08054718375205994,
          -0.02640913613140583,
          0.0005416616913862526,
          -0.1316436529159546,
          0.12052950263023376,
          -0.1332060545682907,
          -0.13450825214385986,
          -0.08093985915184021,
          0.04765097424387932,
          -0.0783076137304306,
          -0.021737540140748024,
          0.2413674145936966,
          0.04904088377952576,
          0.11119522154331207,
          -0.22511614859104156,
          -0.11868064850568771,
          -0.1007823571562767,
          0.18528702855110168,
          0.04021758958697319
        ],
        [
          -0.1672348827123642,
          0.05988428369164467,
          -0.122726209461689,
          0.0005926999147050083,
          -0.011514682322740555,
          0.24099873006343842,
          0.10057906806468964,
          -0.05874061584472656,
          0.006122156046330929,
          -0.06421449035406113,
          0.04676135629415512,
          0.13862887024879456,
          0.07594554871320724,
          -0.09251461178064346,
          0.2583661675453186,
          0.0051259566098451614,
          -0.06236523017287254,
          0.17762437462806702,
          0.17653174698352814,
          0.22443780303001404
        ],
        [
          0.06624537706375122,
          -0.05608319118618965,
          0.13181769847869873,
          0.20899376273155212,
          -0.199769526720047,
          -0.006080050021409988,
          -0.12828326225280762,
          -0.002186845988035202,
          0.07016752660274506,
          0.04060174524784088,
          0.00613468186929822,
          0.11896950006484985,
          -0.0839267298579216,
          -0.16558407247066498,
          0.310947448015213,
          -0.14115184545516968,
          -0.05345546454191208,
          -0.02635250985622406,
          0.004791352432221174,
          -0.11840303242206573
        ],
        [
          0.10259079188108444,
          -0.07329729944467545,
          -0.1142101138830185,
          0.05939784646034241,
          -0.11136465519666672,
          -0.1051575168967247,
          -0.08836892247200012,
          -0.10013125091791153,
          -0.025634286925196648,
          -0.07377259433269501,
          -0.009586137719452381,
          -0.17660203576087952,
          -0.15115413069725037,
          0.03074001707136631,
          0.00770712923258543,
          0.15244223177433014,
          -0.1348096877336502,
          0.11492540687322617,
          0.08425430208444595,
          0.08739470690488815
        ],
        [
          -0.20827217400074005,
          -0.09183637797832489,
          -0.1990767866373062,
          -0.1486199051141739,
          0.11854519695043564,
          -0.042757220566272736,
          0.07219886779785156,
          -0.1256866157054901,
          0.031506434082984924,
          -0.10482839494943619,
          0.06312429904937744,
          -0.10446638613939285,
          -0.006717456039041281,
          -0.16115844249725342,
          -0.0428081639111042,
          0.2443145364522934,
          0.13989539444446564,
          -0.087971992790699,
          0.01998242177069187,
          -0.0554356649518013
        ],
        [
          -0.1800200641155243,
          0.21682310104370117,
          0.05878503620624542,
          0.10022024065256119,
          -0.03696129471063614,
          -0.06868227571249008,
          0.05629575997591019,
          0.2826648950576782,
          0.02520684339106083,
          -0.09813755005598068,
          0.13440768420696259,
          0.021013833582401276,
          -0.16290412843227386,
          0.040831852704286575,
          0.18020355701446533,
          0.0018703530076891184,
          -0.010221462696790695,
          -0.07037893682718277,
          -0.15549224615097046,
          -0.03831416741013527
        ],
        [
          -0.1776966154575348,
          0.12419690191745758,
          0.1750992238521576,
          0.19646716117858887,
          -0.1810256540775299,
          0.09176161885261536,
          -0.18043166399002075,
          -0.058913201093673706,
          0.12522214651107788,
          0.09396526217460632,
          0.07518482208251953,
          0.1223120465874672,
          -0.05880426988005638,
          -0.0011063972488045692,
          -0.009380570612847805,
          0.06755752116441727,
          -0.1158980280160904,
          -0.04328148066997528,
          -0.20063868165016174,
          0.04191576689481735
        ],
        [
          -0.11758876591920853,
          -0.09722894430160522,
          -0.14653533697128296,
          -0.20109900832176208,
          0.01745409518480301,
          0.14372828602790833,
          0.1571892946958542,
          0.12936192750930786,
          -0.06068212166428566,
          -0.16638605296611786,
          0.041771069169044495,
          0.12497630715370178,
          -0.18335013091564178,
          0.05719362571835518,
          0.23178747296333313,
          -0.006977878510951996,
          -0.13027720153331757,
          0.18648198246955872,
          0.11829052865505219,
          0.17781168222427368
        ],
        [
          -0.15122203528881073,
          0.1761387586593628,
          -0.12340054661035538,
          0.24824652075767517,
          -0.06774016469717026,
          0.16113074123859406,
          0.04972314462065697,
          0.03264465183019638,
          -0.08849924057722092,
          0.09783582389354706,
          -0.12860916554927826,
          -0.1829860955476761,
          -0.23107697069644928,
          0.10899589955806732,
          -0.13744010031223297,
          0.0905551090836525,
          -0.09285076707601547,
          0.12526077032089233,
          0.13668493926525116,
          0.07872408628463745
        ],
        [
          -0.1142992228269577,
          -0.21544209122657776,
          -0.011304655112326145,
          -0.1534370630979538,
          0.15731367468833923,
          -0.23025080561637878,
          0.08515260368585587,
          0.26472222805023193,
          0.06164846941828728,
          -0.03065108135342598,
          -0.08483259379863739,
          0.1922360211610794,
          0.0370415635406971,
          -0.3324368894100189,
          0.10247687250375748,
          -0.11037043482065201,
          -0.015531481243669987,
          0.23503859341144562,
          -0.12696096301078796,
          -0.1575431376695633
        ],
        [
          0.036362338811159134,
          -0.03161584958434105,
          0.06607510149478912,
          -0.1765209287405014,
          0.016456134617328644,
          -0.08487100899219513,
          -0.0771232321858406,
          -0.17818069458007812,
          0.0338977612555027,
          0.006015536841005087,
          -0.09745147079229355,
          0.18922564387321472,
          0.05504773184657097,
          0.07289035618305206,
          -0.08602813631296158,
          0.06031062826514244,
          0.24804624915122986,
          0.12418768554925919,
          -0.17495833337306976,
          0.20052604377269745
        ],
        [
          0.01733171008527279,
          0.07358413189649582,
          0.15366065502166748,
          0.1704217493534088,
          -0.19374483823776245,
          0.1766396313905716,
          -0.17499615252017975,
          0.049947842955589294,
          -0.15111015737056732,
          0.009915513917803764,
          0.010068189352750778,
          -0.046636912971735,
          -0.07477156072854996,
          0.051313646137714386,
          0.29103705286979675,
          0.1206970289349556,
          0.12675876915454865,
          0.05489185452461243,
          0.15295641124248505,
          -0.022373398765921593
        ],
        [
          0.017779476940631866,
          0.06016942858695984,
          -0.18351681530475616,
          -0.16874970495700836,
          0.03698600456118584,
          -0.07403775304555893,
          0.008150661364197731,
          -0.10047490149736404,
          0.010990309529006481,
          0.07301349192857742,
          -0.04266204684972763,
          0.18990235030651093,
          0.18680357933044434,
          -0.11831019818782806,
          -0.1781601458787918,
          -0.18944720923900604,
          -0.13613620400428772,
          -0.11696149408817291,
          -0.012114942073822021,
          0.05128045380115509
        ],
        [
          -0.11297700554132462,
          -0.0803440660238266,
          -0.07742704451084137,
          0.22133207321166992,
          -0.08200420439243317,
          -0.16559651494026184,
          0.09725648164749146,
          0.013699324801564217,
          0.11671820282936096,
          0.09559493511915207,
          0.058118272572755814,
          -0.16167515516281128,
          0.11881230026483536,
          0.1715487241744995,
          -0.04622495174407959,
          0.19917616248130798,
          0.16650135815143585,
          -0.061963487416505814,
          0.11607011407613754,
          -0.03550740331411362
        ],
        [
          -0.1950262188911438,
          0.07580308616161346,
          0.05852951854467392,
          -0.15613624453544617,
          0.10082411020994186,
          -0.20545396208763123,
          0.16965936124324799,
          0.17398497462272644,
          0.014340733177959919,
          -0.08698587864637375,
          0.03574018180370331,
          0.029505537822842598,
          -0.001563224010169506,
          0.19483397901058197,
          0.30701521039009094,
          -0.0766684040427208,
          -0.05108340084552765,
          -0.014011728577315807,
          0.004097990691661835,
          0.15758270025253296
        ],
        [
          -0.1174468994140625,
          -0.04709499329328537,
          0.021775120869278908,
          -0.07313743233680725,
          0.13858427107334137,
          0.015464268624782562,
          -0.13887840509414673,
          0.24099382758140564,
          -0.005296067334711552,
          0.026650715619325638,
          0.025734378024935722,
          -0.2377517968416214,
          0.017685052007436752,
          -0.06374048441648483,
          -0.15659113228321075,
          0.2133047729730606,
          -0.023881644010543823,
          0.19390137493610382,
          0.031845465302467346,
          -0.3073015511035919
        ],
        [
          0.0525444820523262,
          0.1923413872718811,
          -0.1782447248697281,
          -0.17705713212490082,
          0.1916012167930603,
          0.14915458858013153,
          -0.16804450750350952,
          0.11650644242763519,
          0.00484479172155261,
          -0.07305467128753662,
          0.0032450202852487564,
          0.04163023456931114,
          -0.08888311684131622,
          0.0319562591612339,
          -0.23217198252677917,
          0.1653435379266739,
          0.19106189906597137,
          0.12905801832675934,
          0.0023942235857248306,
          0.06490755081176758
        ]
      ],
      "b": [
        -0.18290455639362335,
        -0.027165085077285767,
        -0.03920487314462662,
        -0.26742708683013916,
        -0.18754638731479645,
        0.07004091888666153,
        0.11565660685300827,
        -0.3026667535305023,
        0.013311995193362236,
        -0.024010511115193367,
        0.28118205070495605,
        0.08751197159290314,
        0.17440581321716309,
        -0.12896835803985596,
        0.14331625401973724,
        0.18149153888225555,
        -0.2787390351295471,
        -0.08824865520000458,
        -0.008302024565637112,
        0.15408170223236084,
        -0.08153492212295532,
        0.09712822735309601,
        -0.10114007443189621,
        0.040624070912599564,
        -0.10728121548891068,
        0.12384077161550522,
        0.1264868974685669,
        -0.27173975110054016,
        -0.024513177573680878,
        0.03189171850681305,
        0.09637193381786346,
        0.23551085591316223,
        0.14815278351306915,
        0.03168777376413345,
        0.20401273667812347,
        -0.2057407647371292,
        -0.12315694987773895,
        0.010563394986093044,
        -0.2865096926689148,
        -0.0384223535656929,
        -0.13424208760261536,
        -0.02118583209812641,
        0.059584274888038635,
        -0.05785711109638214,
        -0.2738063931465149,
        -0.34046226739883423,
        0.04483925551176071,
        0.23104530572891235,
        -0.1110110655426979,
        0.050365954637527466,
        -0.14914967119693756,
        0.01627017743885517,
        0.16217876970767975,
        0.15374377369880676,
        -0.2419600784778595,
        -0.018247246742248535,
        0.09304032474756241,
        -0.043172355741262436,
        0.1188332810997963,
        -0.14244802296161652,
        -0.13877421617507935,
        -0.18277886509895325,
        0.1561199128627777,
        0.0210590697824955
      ],
      "act": "relu"
    },
    {
      "w": [
        [
          -0.032018184661865234,
          -0.08583643287420273,
          -0.06796026974916458,
          -0.013210635632276535,
          -0.12023051083087921,
          -0.038960449397563934,
          -0.01345598604530096,
          -0.0936315730214119,
          0.018812716007232666,
          -0.0036411841865628958,
          0.03696049749851227,
          -0.024333177134394646,
          -0.0917428657412529,
          0.07689958810806274,
          -0.018662646412849426,
          -0.050387509167194366,
          -0.09242789447307587,
          0.018612228333950043,
          -0.13352131843566895,
          0.02229643426835537,
          0.04675187170505524,
          -0.11904124915599823,
          -0.0923861488699913,
          -0.1471584290266037,
          0.10003945231437683,
          0.04609418287873268,
          0.007825106382369995,
          0.07153990119695663,
          -0.05247912555932999,
          -0.16408532857894897,
          0.032976601272821426,
          0.033593159168958664,
          0.1019369587302208,
          -0.044214390218257904,
          0.08162099868059158,
          0.06287425011396408,
          0.07616594433784485,
          -0.1358724683523178,
          0.07054778188467026,
          -0.14989586174488068,
          0.0713626965880394,
          -0.06356914341449738,
          -0.12146299332380295,
          0.002169050043448806,
          -0.03754228726029396,
          -0.12744078040122986,
          -0.05680634826421738,
          0.00219774735160172,
          0.054006557911634445,
          -0.08640783280134201,
          0.06355717778205872,
          -0.034818485379219055,
          -0.006648441776633263,
          -0.030684441328048706,
          -0.09754358977079391,
          -0.11456694453954697,
          -0.07289651781320572,
          -0.15776807069778442,
          -0.07207994908094406,
          -0.048079267144203186,
          -0.09315886348485947,
          -0.06205471605062485,
          -0.04203611984848976,
          -0.042843323200941086
        ],
        [
          -0.08610235154628754,
          0.09462820738554001,
          -0.02706950344145298,
          0.0014173175441101193,
          -0.012504037469625473,
          -0.02699730172753334,
          -0.17528532445430756,
          -0.03686574473977089,
          -0.06832529604434967,
          -0.012361712753772736,
          -0.01464723888784647,
          0.055827025324106216,
          -0.014809470623731613,
          0.10894136130809784,
          -0.026893412694334984,
          -0.10637347400188446,
          -0.05482707545161247,
          0.016897497698664665,
          -0.04532984644174576,
          -0.12983264029026031,
          -0.044993042945861816,
          -0.08160652965307236,
          0.11208280175924301,
          0.041502632200717926,
          0.015586458146572113,
          0.11658069491386414,
          -0.18827034533023834,
          -0.005594116169959307,
          0.13405026495456696,
          0.058120690286159515,
          -0.11505913734436035,
          0.0392984077334404,
          -0.1469293087720871,
          -0.039658308029174805,
          -0.045569807291030884,
          0.01407877542078495,
          -0.10465046763420105,
          -0.09105206280946732,
          -0.014762818813323975,
          0.01639842428267002,
          -0.08105601370334625,
          -0.18799085915088654,
          -0.12928420305252075,
          -0.12559854984283447,
          0.055439338088035583,
          0.09976056963205338,
          -0.16277912259101868,
          -0.12301363795995712,
          0.030422547832131386,
          0.08516040444374084,
          0.15310652554035187,
          0.017268650233745575,
          -0.08037765324115753,
          0.03410622477531433,
          0.04501260817050934,
          -0.05184367299079895,
          -0.08522689342498779,
          -0.05617037042975426,
          0.09117767214775085,
          -0.03279855102300644,
          0.07041335105895996,
          0.1220410168170929,
          -0.026605118066072464,
          0.013948515988886356
        ],
        [
          -0.02508869208395481,
          0.07226669788360596,
          -0.0857858806848526,
          0.09306471794843674,
          -0.05298491567373276,
          0.05746530368924141,
          -0.004192041233181953,
          -0.008388354443013668,
          0.028940778225660324,
          0.04404858872294426,
          -0.15450510382652283,
          -0.09132988750934601,
          -0.012136690318584442,
          -0.04111131653189659,
          0.0633600577712059,
          0.08215026557445526,
          -0.029864447191357613,
          0.12332835048437119,
          -0.040560830384492874,
          -0.07411465048789978,
          -0.04688257351517677,
          -0.09517794102430344,
          0.05327362194657326,
          -0.0832921490073204,
          -0.11811190843582153,
          0.01846686564385891,
          0.0972198098897934,
          0.13058745861053467,
          0.0773724913597107,
          -0.0064641390927135944,
          0.022627174854278564,
          -0.08883390575647354,
          0.0680868849158287,
          -0.14462342858314514,
          0.012872648425400257,
          0.03939088061451912,
          0.023402489721775055,
          0.06430066376924515,
          -0.03971530869603157,
          0.1164373978972435,
          0.09145836532115936,
          0.09570439904928207,
          0.03125254437327385,
          0.07055725902318954,
          0.08320796489715576,
          0.054861702024936676,
          0.09746664762496948,
          -0.020959651097655296,
          0.09232117235660553,
          0.05610386282205582,
          0.08862398564815521,
          0.11870674043893814,
          0.004279399290680885,
          -0.07020390778779984,
          -0.004885163623839617,
          0.052989501506090164,
          -0.00015389782493002713,
          -0.01842205971479416,
          0.06632836908102036,
          0.12393806129693985,
          -0.06490537524223328,
          0.026963278651237488,
          -0.05669082701206207,
          -0.1038052886724472
        ],
        [
          0.031469982117414474,
          -0.03462246060371399,
          -0.07493674010038376,
          0.009906399995088577,
          -0.022861169651150703,
          0.12102685868740082,
          0.04669296741485596,
          0.14452414214611053,
          0.0121869882568717,
          0.029753953218460083,
          0.07998581230640411,
          0.00770896952599287,
          -0.08637547492980957,
          -0.09309207648038864,
          -0.015173446387052536,
          0.022734710946679115,
          0.05619240552186966,
          0.11077827960252762,
          0.10193485766649246,
          0.02210405096411705,
          -0.03963374346494675,
          -0.0751940906047821,
          -0.07575298845767975,
          -0.06231694296002388,
          0.06598827242851257,
          0.09818588197231293,
          0.10706464946269989,
          -0.031238114461302757,
          0.0024662103969603777,
          -0.01166536659002304,
          0.0009311233297921717,
          0.05509081110358238,
          0.01605687290430069,
          0.014526410028338432,
          0.005422164220362902,
          0.014340747147798538,
          -0.044092994183301926,
          -0.0588700994849205,
          0.05168602243065834,
          0.01977415196597576,
          -0.029105298221111298,
          0.06929586827754974,
          0.012983564287424088,
          -0.01769912801682949,
          -0.07082164287567139,
          0.006683193147182465,
          -0.08988681435585022,
          0.042034685611724854,
          0.054542526602745056,
          0.0783953070640564,
          0.014005186967551708,
          0.017714563757181168,
          0.0506349541246891,
          0.12408056855201721,
          -0.030272111296653748,
          0.09216383844614029,
          0.07602009177207947,
          -0.08909732848405838,
          0.0501638799905777,
          -0.08304314315319061,
          -0.050422150641679764,
          -0.052464794367551804,
          -0.07737448811531067,
          0.10364711284637451
        ],
        [
          -0.09641075879335403,
          0.038355033844709396,
          -0.08374781906604767,
          -0.03747735545039177,
          -0.04963246360421181,
          0.07376602292060852,
          -0.03043605573475361,
          -0.023417795076966286,
          -0.022205574437975883,
          0.0555512011051178,
          0.03497907146811485,
          -0.015690747648477554,
          -0.07975681871175766,
          -0.18657006323337555,
          0.10732419043779373,
          -0.1383255571126938,
          -0.052294109016656876,
          -0.014478418044745922,
          0.07777287811040878,
          0.021733950823545456,
          -0.13762132823467255,
          -0.0791664868593216,
          -0.007446449715644121,
          0.01726478524506092,
          0.06681592017412186,
          -0.06532587856054306,
          0.05622333288192749,
          -0.19894404709339142,
          0.10099133104085922,
          0.06882943212985992,
          0.07098717242479324,
          -0.052425216883420944,
          -0.044062916189432144,
          0.04311018064618111,
          -0.1381935179233551,
          -0.11624062806367874,
          -0.11685891449451447,
          -0.02904784306883812,
          0.03211967647075653,
          0.01824958063662052,
          -0.06158372387290001,
          0.05198647081851959,
          -0.0854296162724495,
          -0.048040103167295456,
          0.0603942945599556,
          -0.20709925889968872,
          0.08512221276760101,
          -0.08982648700475693,
          0.12998729944229126,
          -0.09675010293722153,
          0.009191472083330154,
          -0.03889523074030876,
          0.032076116651296616,
          -0.06099443882703781,
          -0.002185445511713624,
          -0.1687036007642746,
          0.09845147281885147,
          -0.1199135109782219,
          0.04706771299242973,
          -0.11095740646123886,
          -0.051024310290813446,
          -0.1508083939552307,
          0.12011454254388809,
          0.042341962456703186
        ],
        [
          -0.2909826934337616,
          -0.017932111397385597,
          -0.1307554394006729,
          0.1313130259513855,
          0.03206145018339157,
          -0.028789326548576355,
          -0.06614955514669418,
          0.07160317897796631,
          -0.0357980877161026,
          0.05429375171661377,
          0.031570956110954285,
          0.05364830419421196,
          0.0548434816300869,
          -0.09516122192144394,
          0.09429308027029037,
          -0.058464597910642624,
          -0.03780315816402435,
          -0.0061278981156647205,
          0.10955144464969635,
          0.12383835762739182,
          0.01170292217284441,
          0.08362551778554916,
          -0.17803174257278442,
          0.03447362408041954,
          -0.11042173206806183,
          0.07230870425701141,
          -0.12155985087156296,
          -0.045246969908475876,
          0.0652405321598053,
          0.12851779162883759,
          -0.07347111403942108,
          -0.07340659201145172,
          0.03739835321903229,
          0.05597173422574997,
          -0.045314133167266846,
          -0.10462410748004913,
          -0.11843131482601166,
          0.01927880570292473,
          0.10926248133182526,
          -0.04880330339074135,
          0.06490591168403625,
          0.07844706624746323,
          0.11976109445095062,
          -0.0011245105415582657,
          -0.0457601323723793,
          -0.04115057736635208,
          0.09414977580308914,
          0.12231480330228806,
          -0.05797934904694557,
          0.01906212978065014,
          0.09624131768941879,
          -0.09447146952152252,
          0.017092976719141006,
          0.01841435581445694,
          0.08206757158041,
          -0.045920830219984055,
          -0.03129645809531212,
          0.045119743794202805,
          -0.20389249920845032,
          -0.0788077712059021,
          -0.0408426970243454,
          0.10392941534519196,
          0.0679614469408989,
          -0.09843944758176804
        ],
        [
          0.08012967556715012,
          -0.04376586526632309,
          -0.04123838618397713,
          0.14848944544792175,
          0.06443125754594803,
          -0.041640184819698334,
          0.028709478676319122,
          -0.0014104039873927832,
          0.04685143753886223,
          -0.04022380709648132,
          -0.14804361760616302,
          0.0277484729886055,
          0.013796869665384293,
          0.07374615222215652,
          -0.06439714878797531,
          0.04765830934047699,
          0.07889826595783234,
          0.07217223942279816,
          0.04379276558756828,
          0.11852115392684937,
          0.0240023210644722,
          0.023030150681734085,
          0.12915435433387756,
          0.1384892612695694,
          -0.004540074151009321,
          0.09368689358234406,
          0.03043273836374283,
          -0.0020071056205779314,
          0.10853744298219681,
          -0.06321980804204941,
          0.09197745472192764,
          0.11658646911382675,
          -0.09674713015556335,
          -0.06079479679465294,
          -0.14251092076301575,
          -0.030680855736136436,
          -0.10785668343305588,
          -0.03395823761820793,
          0.01452645380049944,
          0.07831936329603195,
          0.09688715636730194,
          0.07260986417531967,
          0.07322466373443604,
          -0.051874201744794846,
          -0.19393102824687958,
          -0.0349833182990551,
          0.1170184388756752,
          0.00857614353299141,
          -0.021932363510131836,
          -0.09013394266366959,
          -0.04997236654162407,
          -0.12079010903835297,
          0.08931637555360794,
          -0.029634570702910423,
          -0.12806066870689392,
          0.013743885792791843,
          -0.023389829322695732,
          0.008277380838990211,
          0.014652695506811142,
          0.07675004005432129,
          -0.07466603070497513,
          -0.06278454512357712,
          -0.02374882996082306,
          -0.16131450235843658
        ],
        [
          -0.1258765161037445,
          0.09207037091255188,
          0.015185307711362839,
          -0.053741347044706345,
          0.02676808089017868,
          -0.0659436285495758,
          0.03962504863739014,
          -0.07082919776439667,
          -0.06682132184505463,
          -0.07017223536968231,
          0.12309456616640091,
          0.00984831340610981,
          -0.03680664300918579,
          -0.05481559410691261,
          -0.10316316783428192,
          -0.009772906079888344,
          0.047685280442237854,
          -0.05287083610892296,
          0.03981432691216469,
          -0.12892107665538788,
          0.0354759655892849,
          0.1643361747264862,
          0.12034198641777039,
          0.11510986089706421,
          0.00036719729541800916,
          -0.048827413469552994,
          -0.07861156761646271,
          0.1094006672501564,
          -0.14032994210720062,
          0.08697894215583801,
          0.005951239727437496,
          -0.009840978309512138,
          0.045534905046224594,
          -0.028712185099720955,
          0.05848758667707443,
          -0.07143290340900421,
          -0.03803747892379761,
          0.15501511096954346,
          0.05711030960083008,
          0.0010949161369353533,
          -0.04519914835691452,
          -0.06323355436325073,
          0.059998899698257446,
          -0.012447517365217209,
          0.015390987507998943,
          0.04331103339791298,
          0.046326830983161926,
          -0.11723891645669937,
          -0.05753033608198166,
          0.1895313560962677,
          0.043842751532793045,
          -0.0035710888914763927,
          -0.13394469022750854,
          0.04983644559979439,
          0.04700051248073578,
          0.04917244240641594,
          0.10953111201524734,
          -0.05093616247177124,
          0.08900682628154755,
          -0.03944284841418266,
          0.05076511949300766,
          0.05372392758727074,
          0.0417485274374485,
          0.1305452287197113
        ],
        [
          -0.11309599876403809,
          -0.1027190238237381,
          -0.1254752278327942,
          0.12076462060213089,
          0.005300726741552353,
          -0.08257537335157394,
          0.05061240866780281,
          0.13485807180404663,
          -0.08810495585203171,
          0.09365275502204895,
          0.01724749058485031,
          0.013780723325908184,
          0.12329958379268646,
          0.12945914268493652,
          0.05512451380491257,
          0.10609234869480133,
          0.033515870571136475,
          0.005403765477240086,
          -0.077368825674057,
          0.06118439510464668,
          -0.07943205535411835,
          0.051275834441185,
          -0.0035167881287634373,
          0.027953818440437317,
          -0.07161034643650055,
          -0.040470898151397705,
          0.06533583998680115,
          0.06323398649692535,
          0.014490040950477123,
          -0.03038230538368225,
          -0.02308976650238037,
          -0.05678185820579529,
          0.11339797079563141,
          -0.022756945341825485,
          0.0941561907529831,
          0.018246810883283615,
          -0.14204342663288116,
          -0.015065995045006275,
          -0.03972053527832031,
          -0.06081526726484299,
          0.08470692485570908,
          0.015864010900259018,
          0.124366395175457,
          -0.04159780591726303,
          -0.009150932542979717,
          -0.1291326880455017,
          -0.048589952290058136,
          0.0036271526478230953,
          0.10443147271871567,
          0.04846963286399841,
          -0.11778861284255981,
          0.051594365388154984,
          -0.06862179934978485,
          0.004394103307276964,
          -0.09565771371126175,
          -0.014331175945699215,
          0.0826369971036911,
          -0.0975850522518158,
          -0.12672612071037292,
          0.044524725526571274,
          0.03365291282534599,
          0.002641957486048341,
          0.1160861924290657,
          -0.05163459852337837
        ],
        [
          -0.09980709850788116,
          -0.1330706924200058,
          -0.06101071462035179,
          -0.05835339054465294,
          0.04096192121505737,
          -0.024822654202580452,
          0.033165451139211655,
          -0.09923133254051208,
          0.089988112449646,
          0.07599717378616333,
          -0.15957720577716827,
          -0.06199350208044052,
          -0.11827931553125381,
          0.02358480542898178,
          -0.10629578679800034,
          -0.0778404101729393,
          0.13191065192222595,
          -0.13259750604629517,
          0.0539577454328537,
          -0.005126152653247118,
          0.07651326060295105,
          -0.09449208527803421,
          0.04686731472611427,
          0.011495611630380154,
          -0.021965373307466507,
          0.05842854827642441,
          -0.21107907593250275,
          -0.14189942181110382,
          0.11205535382032394,
          0.008355938829481602,
          -0.0947493314743042,
          -0.02624715119600296,
          -0.09604435414075851,
          -0.04660926014184952,
          -0.11766638606786728,
          0.0027855997905135155,
          -0.06426253914833069,
          -0.07323689013719559,
          0.10586682707071304,
          0.003487067762762308,
          -0.0025893026031553745,
          0.022144369781017303,
          -0.06020507961511612,
          -0.05093054100871086,
          -0.0452355295419693,
          -0.09657763689756393,
          -0.09016264975070953,
          0.11060820519924164,
          -0.029768263921141624,
          0.019965555518865585,
          0.08427869528532028,
          -0.07040273398160934,
          -0.08651796728372574,
          -0.1132834330201149,
          -0.03255351260304451,
          0.014943446032702923,
          -0.13759882748126984,
          -0.04620160907506943,
          0.0074035911820828915,
          0.11204035580158234,
          0.013288176618516445,
          0.014544658362865448,
          0.036153681576251984,
          0.020991001278162003
        ],
        [
          0.053201861679553986,
          0.01259648147970438,
          -0.04946397244930267,
          -0.13860437273979187,
          -0.026865236461162567,
          -0.16019001603126526,
          -0.09292606264352798,
          -0.07671725749969482,
          0.04823973774909973,
          0.06044885516166687,
          -0.3831457495689392,
          -0.03221157565712929,
          -0.09012755751609802,
          -0.07347722351551056,
          -0.2638328969478607,
          0.05938944220542908,
          -0.1676895022392273,
          -0.04653581976890564,
          0.05935254693031311,
          -0.09289733320474625,
          0.3463757038116455,
          -0.01346087921410799,
          -0.13524554669857025,
          0.03979337587952614,
          0.11919567734003067,
          -0.20318756997585297,
          0.1285964399576187,
          0.10391195118427277,
          -0.1020323783159256,
          0.05583368241786957,
          0.05979815125465393,
          -0.2819603681564331,
          0.125450998544693,
          -0.06533274054527283,
          0.04908047243952751,
          -0.008336244150996208,
          0.03404377028346062,
          -0.0578535757958889,
          0.002663405379280448,
          -0.32162803411483765,
          -0.004178056959062815,
          -0.0006074897246435285,
          -0.09421215206384659,
          0.009861169382929802,
          0.09823200106620789,
          0.06174315884709358,
          0.013431656174361706,
          -0.0227416530251503,
          -0.1011577919125557,
          -0.38102036714553833,
          0.013060469180345535,
          -0.21259354054927826,
          -0.09029307961463928,
          -0.03452332317829132,
          -0.07910189032554626,
          0.14122876524925232,
          -0.013661518692970276,
          -0.06343607604503632,
          -0.03484911099076271,
          -0.20570428669452667,
          0.10068546235561371,
          0.20410257577896118,
          0.033427756279706955,
          0.18706198036670685
        ],
        [
          0.06692187488079071,
          0.048245467245578766,
          -0.027850691229104996,
          0.10906969755887985,
          0.1537632942199707,
          -0.16037438809871674,
          -0.17787934839725494,
          -0.06012097746133804,
          0.0590948611497879,
          0.08490309864282608,
          -0.09250906109809875,
          -0.06710626184940338,
          -0.08481249213218689,
          0.013746477663516998,
          -0.007484010886400938,
          -0.035250160843133926,
          0.03352322429418564,
          -0.026495490223169327,
          0.120759978890419,
          -0.07790611684322357,
          -0.003916449844837189,
          0.006355735938996077,
          -0.04190753400325775,
          0.04772340506315231,
          -0.2109481543302536,
          0.12782399356365204,
          0.015938229858875275,
          0.0041902256198227406,
          0.08070346713066101,
          -0.004333185963332653,
          0.017293695360422134,
          0.047557149082422256,
          -0.035018257796764374,
          0.09114072471857071,
          -0.006219653412699699,
          -0.07285355776548386,
          0.025169961154460907,
          0.06083140894770622,
          -0.0632811039686203,
          -0.12468946725130081,
          0.05488130450248718,
          -0.13599984347820282,
          -0.022166263312101364,
          -0.004942151252180338,
          0.02313772402703762,
          0.12120819836854935,
          -0.07419078797101974,
          -0.04205181077122688,
          0.05887170508503914,
          -0.17117741703987122,
          -0.03119431808590889,
          -0.10398305952548981,
          0.022451074793934822,
          -0.024319367483258247,
          -0.006517642643302679,
          -0.038878895342350006,
          -0.002032513963058591,
          0.07271029055118561,
          0.02321297861635685,
          0.14581389725208282,
          -0.012366211041808128,
          -0.024458132684230804,
          0.0549352802336216,
          -0.0013673020293936133
        ],
        [
          -0.04004696384072304,
          0.05707009136676788,
          0.07640159875154495,
          0.03785449638962746,
          0.0726102739572525,
          0.08631736040115356,
          0.031009068712592125,
          -0.014688021503388882,
          0.06468471139669418,
          0.0038136241491883993,
          0.057870082557201385,
          0.08297761529684067,
          0.042985785752534866,
          -0.00877775065600872,
          0.09693124890327454,
          -0.10841921716928482,
          0.0810125544667244,
          0.05330586060881615,
          0.05768990144133568,
          0.005210991483181715,
          -0.09269337356090546,
          0.06592544168233871,
          -0.12578651309013367,
          0.05565960332751274,
          0.08191874623298645,
          -0.16597099602222443,
          0.01512815523892641,
          -0.06473422050476074,
          0.06795436888933182,
          -0.11927992105484009,
          0.07926147431135178,
          0.07319233566522598,
          0.08021344989538193,
          0.14807020127773285,
          0.015012663789093494,
          -0.09028846770524979,
          0.07150985300540924,
          -0.021306291222572327,
          -0.00808687973767519,
          -0.1287929266691208,
          -0.059426404535770416,
          -0.07869931310415268,
          0.12233030796051025,
          0.06658713519573212,
          0.07342065870761871,
          0.02930045872926712,
          -0.07262739539146423,
          -0.06060335785150528,
          -0.1323259472846985,
          -0.0747351348400116,
          0.09048324078321457,
          0.032950207591056824,
          0.07413683831691742,
          -0.009832166135311127,
          -0.17525070905685425,
          -0.04629356041550636,
          0.05684062838554382,
          0.08562600612640381,
          -0.0043962616473436356,
          -0.00534206023439765,
          -0.06389344483613968,
          -0.07276523858308792,
          0.08513352274894714,
          -0.0726536437869072
        ],
        [
          0.04227781295776367,
          0.001792639959603548,
          -0.044734060764312744,
          0.014657287858426571,
          -0.04518594220280647,
          -0.0496947355568409,
          -0.06158458814024925,
          -0.19049584865570068,
          -0.013150137849152088,
          0.02002457156777382,
          -0.05723332613706589,
          0.06264688819646835,
          -0.13607032597064972,
          -0.15129436552524567,
          -0.10994159430265427,
          -0.0689627155661583,
          -0.022528082132339478,
          -0.05843343585729599,
          0.04886411130428314,
          -0.16000324487686157,
          -0.00540145393460989,
          -0.0068492526188492775,
          0.0216690581291914,
          0.0940583273768425,
          0.05579596757888794,
          -0.08202814310789108,
          -0.13827842473983765,
          -0.028119990602135658,
          -0.08780188113451004,
          0.04905824363231659,
          0.01734977774322033,
          0.08143923431634903,
          0.020515143871307373,
          -0.02877318672835827,
          -0.01640479639172554,
          -0.00980169977992773,
          -0.03690912947058678,
          0.09114235639572144,
          -0.11700506508350372,
          0.028437359258532524,
          -0.1068364828824997,
          -0.06339516490697861,
          -0.019500890746712685,
          0.05891748517751694,
          0.09376075863838196,
          0.04298138990998268,
          0.0012977292062714696,
          -0.03609687089920044,
          -0.10760877281427383,
          -0.04926605522632599,
          -0.021628286689519882,
          0.14485320448875427,
          0.08213872462511063,
          -0.09206442534923553,
          -0.008647050708532333,
          -0.10568228363990784,
          -0.0638897642493248,
          -0.1523400843143463,
          0.03259577602148056,
          -0.12430854141712189,
          0.10056919604539871,
          0.06486882269382477,
          -0.12025482952594757,
          -0.11588890105485916
        ],
        [
          0.009801039472222328,
          -0.04870488867163658,
          0.01617773436009884,
          -0.10016275942325592,
          0.00450790673494339,
          -0.13940152525901794,
          -0.09132055938243866,
          -0.11077108979225159,
          0.03991891071200371,
          -0.10074623674154282,
          -0.08274012804031372,
          -0.0907486155629158,
          -0.07096129655838013,
          -0.13343867659568787,
          -0.006756415590643883,
          0.028263945132493973,
          -0.048870671540498734,
          -0.024631664156913757,
          -0.02051062323153019,
          -0.10495884716510773,
          -0.062221311032772064,
          -0.13770072162151337,
          0.08470075577497482,
          -0.16136284172534943,
          0.017809664830565453,
          -0.06982960551977158,
          -0.05626237764954567,
          -0.14703212678432465,
          0.08221127092838287,
          0.10268978029489517,
          -0.021494166925549507,
          0.06914743036031723,
          0.07640278339385986,
          0.05450039729475975,
          0.0459529384970665,
          0.002579138148576021,
          -0.16385357081890106,
          -0.13973653316497803,
          0.014130203984677792,
          -0.07232688367366791,
          -0.13112999498844147,
          -0.08247443288564682,
          -0.13781307637691498,
          -0.0065148090943694115,
          0.03894501179456711,
          -0.07648918777704239,
          0.06860716640949249,
          -0.05342045798897743,
          -0.06941455602645874,
          0.10008764266967773,
          0.07637433707714081,
          -0.09273885190486908,
          -0.09921801090240479,
          -0.22504648566246033,
          -0.010292240418493748,
          0.10615167021751404,
          0.09409577399492264,
          -0.07187184691429138,
          0.006013375706970692,
          -0.12101186811923981,
          -0.039769530296325684,
          -0.3710358142852783,
          -0.06152902916073799,
          -0.11853092908859253
        ],
        [
          -0.013565264642238617,
          -0.14967887103557587,
          -0.0686895027756691,
          -0.09989634901285172,
          -0.057012178003787994,
          0.10060731321573257,
          0.04902634024620056,
          -0.004819480702280998,
          -0.016255272552371025,
          0.039775073528289795,
          0.050990886986255646,
          -0.08392151445150375,
          -0.07679785788059235,
          -0.15747256577014923,
          -0.005521515384316444,
          -0.1538056582212448,
          -0.07970130443572998,
          -0.05518975108861923,
          0.049182359129190445,
          0.06683218479156494,
          0.08660003542900085,
          0.0327967032790184,
          -0.027424601837992668,
          0.03353406488895416,
          -0.11795337498188019,
          -0.021855587139725685,
          -0.0012182060163468122,
          -0.00043774963705800474,
          -0.08731256425380707,
          0.0876111388206482,
          0.10568896681070328,
          -0.05948321893811226,
          0.004329160787165165,
          -0.05832614377140999,
          -0.058290597051382065,
          0.007243143394589424,
          0.09952162951231003,
          0.02760348655283451,
          -0.09820807725191116,
          0.0024660187773406506,
          0.05649181455373764,
          0.036963287740945816,
          -0.0112844780087471,
          -0.032430246472358704,
          -0.05840553715825081,
          -0.0552147775888443,
          -0.07808057218790054,
          0.01258319616317749,
          0.04217715933918953,
          0.14173811674118042,
          -0.058466214686632156,
          0.01893744431436062,
          0.10497193038463593,
          0.07518842071294785,
          -0.06181470304727554,
          0.0475933775305748,
          0.06733427941799164,
          -0.14918504655361176,
          0.018863406032323837,
          -0.038897957652807236,
          0.0795804038643837,
          0.13614369928836823,
          -0.0031149331480264664,
          0.11619345843791962
        ],
        [
          -0.04133229702711105,
          0.13022464513778687,
          0.14542770385742188,
          0.06383661180734634,
          -0.22962313890457153,
          -0.035224463790655136,
          0.0005706155789084733,
          -0.010278942994773388,
          -0.13274399936199188,
          -0.009161863476037979,
          0.015051593072712421,
          -0.05021867901086807,
          -0.028650810942053795,
          0.01263316348195076,
          -0.06580580770969391,
          -0.04384911060333252,
          0.044546179473400116,
          0.08546377718448639,
          0.12856438755989075,
          -0.08472961187362671,
          0.11275898665189743,
          0.043430376797914505,
          -0.05324073135852814,
          0.0013647036394104362,
          0.020559117197990417,
          -0.05032636225223541,
          -0.0986119955778122,
          -0.10621955990791321,
          0.10666341334581375,
          0.17385515570640564,
          0.030682528391480446,
          -0.0675954669713974,
          -0.10515784472227097,
          -0.11560609191656113,
          -0.09697581827640533,
          -0.001998280640691519,
          0.0831448882818222,
          -0.13975942134857178,
          0.15170058608055115,
          0.046512942761182785,
          -0.21356533467769623,
          0.06913916766643524,
          -0.006306500639766455,
          -0.026371978223323822,
          0.02562810853123665,
          -0.08255577087402344,
          -0.05134082958102226,
          0.07861106097698212,
          -0.06915807723999023,
          0.1747630387544632,
          -0.030287012457847595,
          0.10813242197036743,
          -0.06006893515586853,
          -0.0443514809012413,
          0.08810177445411682,
          0.17032918334007263,
          0.19740797579288483,
          0.07344162464141846,
          -0.07264541834592819,
          0.021822508424520493,
          -0.009913336485624313,
          0.16014701128005981,
          0.06779495626688004,
          -0.03890939801931381
        ],
        [
          -0.052287887781858444,
          0.10656555742025375,
          -0.08079133182764053,
          0.1253444254398346,
          0.027197543531656265,
          0.03975311294198036,
          0.10906103253364563,
          -0.0883968248963356,
          0.01291345153003931,
          0.061524853110313416,
          0.0017685481579974294,
          -0.11463501304388046,
          0.044529128819704056,
          -0.055694013833999634,
          0.0029408514965325594,
          0.07581567764282227,
          -0.013276691548526287,
          -0.018881063908338547,
          0.005318149458616972,
          0.14142727851867676,
          0.11065908521413803,
          0.003572699846699834,
          -0.047312743961811066,
          -0.037188585847616196,
          0.13131757080554962,
          0.08695925027132034,
          0.07323667407035828,
          -3.721093526110053e-05,
          0.08750525116920471,
          -0.01217495184391737,
          0.09760771691799164,
          0.10491584986448288,
          0.02001272141933441,
          -0.010732135735452175,
          0.13955017924308777,
          -0.0658031478524208,
          0.06685163825750351,
          -0.08077887445688248,
          -0.02723071537911892,
          -0.10578430444002151,
          0.0051469518803060055,
          0.05077598616480827,
          -0.0813608467578888,
          -0.08317593485116959,
          0.0764705091714859,
          0.07298287749290466,
          0.006451345048844814,
          -0.09466446936130524,
          -0.07449619472026825,
          -0.04098612442612648,
          0.06705720722675323,
          -0.02461795136332512,
          -0.0581108033657074,
          -0.06773822754621506,
          -0.0877290740609169,
          0.07112907618284225,
          0.06917892396450043,
          0.03942252695560455,
          -0.06653327494859695,
          0.15212199091911316,
          0.05246535316109657,
          -0.07729283720254898,
          -0.017898278310894966,
          -0.0371624194085598
        ],
        [
          0.013307826593518257,
          0.06583140790462494,
          0.05884900689125061,
          0.044023893773555756,
          0.08206486701965332,
          -0.019432255998253822,
          -0.04999824985861778,
          -0.016398444771766663,
          -0.06482049077749252,
          -0.10015412420034409,
          -0.15037521719932556,
          -0.045459870249032974,
          0.04057161137461662,
          -0.011418712325394154,
          -0.06206006929278374,
          0.11778965592384338,
          -0.0032508247531950474,
          0.07563620805740356,
          0.09114935994148254,
          -0.03488819673657417,
          0.002620507963001728,
          0.045950066298246384,
          0.02467275597155094,
          0.0011914503993466496,
          0.09820057451725006,
          -0.10183769464492798,
          -0.08131774514913559,
          0.09968635439872742,
          -0.04412035644054413,
          0.10833968967199326,
          0.017579808831214905,
          -0.04875114932656288,
          0.1550961285829544,
          0.10955562442541122,
          0.002736619208008051,
          -0.02410353720188141,
          0.015494556166231632,
          -0.08646217733621597,
          0.08412318676710129,
          0.039934948086738586,
          0.03953540697693825,
          0.08479524403810501,
          0.07073350250720978,
          -0.08905647695064545,
          0.07884141057729721,
          0.03559976443648338,
          -0.06137790158390999,
          0.1204654797911644,
          0.04197601601481438,
          -0.020858248695731163,
          -0.057644277811050415,
          0.013620581477880478,
          -0.1397383213043213,
          0.033188022673130035,
          0.10316319763660431,
          -0.033472202718257904,
          0.12609054148197174,
          -0.04239929839968681,
          -0.013100694864988327,
          -0.04345303028821945,
          0.010365743190050125,
          0.08147070556879044,
          0.06980078667402267,
          -0.03312985599040985
        ],
        [
          -0.08736737072467804,
          0.10419798642396927,
          0.07233235239982605,
          0.054809000343084335,
          -0.12289032340049744,
          0.027684874832630157,
          -0.0279475636780262,
          0.1349177211523056,
          0.05844701826572418,
          -0.010779852978885174,
          -0.016479063779115677,
          0.06448309123516083,
          0.003803649451583624,
          0.08585984259843826,
          0.05163876339793205,
          -0.0883546844124794,
          -0.03670177236199379,
          -0.08791330456733704,
          -0.1456741839647293,
          0.026861203834414482,
          0.04311084374785423,
          -0.07269845902919769,
          0.14820051193237305,
          -0.06407143920660019,
          -0.07416732609272003,
          -0.03307488188147545,
          -0.030688272789120674,
          -0.012381820008158684,
          0.10557866096496582,
          -0.07110633701086044,
          -0.09147947281599045,
          0.003797925775870681,
          0.11757007241249084,
          0.03255155682563782,
          0.04444745555520058,
          0.02717825211584568,
          0.06754518300294876,
          0.05702204257249832,
          0.063113734126091,
          -0.02981112338602543,
          -0.07422033697366714,
          -0.09870603680610657,
          0.046525634825229645,
          0.08254638314247131,
          -0.06931113451719284,
          0.0925588309764862,
          -0.00124546408187598,
          -0.000994750065729022,
          0.010020180605351925,
          -0.07578627020120621,
          0.1189422756433487,
          -0.01100220251828432,
          0.04767384007573128,
          -0.1300029456615448,
          -0.060190558433532715,
          0.004052191507071257,
          0.08226233720779419,
          0.10110820084810257,
          0.005459085572510958,
          -0.11427237093448639,
          0.005543307401239872,
          -0.05573436990380287,
          -0.07654234021902084,
          0.012691781856119633
        ],
        [
          -0.0581384040415287,
          0.05950762704014778,
          0.05361342802643776,
          0.11206820607185364,
          0.25375404953956604,
          -0.1544579118490219,
          0.13329672813415527,
          0.022317197173833847,
          0.16252590715885162,
          0.13903012871742249,
          -0.05605240911245346,
          -0.10800115019083023,
          0.04635191336274147,
          -0.19341927766799927,
          -0.12999650835990906,
          0.06701789051294327,
          -0.08083698153495789,
          0.017537791281938553,
          0.10885434597730637,
          0.09298671782016754,
          -0.26062050461769104,
          0.024030176922678947,
          -0.10573916882276535,
          0.01556618232280016,
          0.17314811050891876,
          0.002278810366988182,
          -0.060113485902547836,
          0.1245746836066246,
          -0.048142094165086746,
          0.05079954117536545,
          0.06549272686243057,
          -0.29003170132637024,
          0.03979082033038139,
          -0.07439819723367691,
          -0.0006142620113678277,
          0.18956729769706726,
          -0.1223410815000534,
          0.023296412080526352,
          0.06232689321041107,
          -0.008250128477811813,
          0.02683708816766739,
          -0.2883538603782654,
          -0.1757311373949051,
          0.13107047975063324,
          0.09484163671731949,
          0.11253578960895538,
          0.01911386288702488,
          0.04067603871226311,
          -0.05476289242506027,
          0.10547536611557007,
          -0.3252367377281189,
          0.019689956679940224,
          -0.09965233504772186,
          -0.029048753902316093,
          0.0813160091638565,
          -0.05118492618203163,
          0.054526325315237045,
          -0.0671520084142685,
          -0.03627907112240791,
          0.02825491689145565,
          0.1285410076379776,
          0.020947035402059555,
          -0.25310736894607544,
          -0.02505866251885891
        ],
        [
          -0.06285978108644485,
          0.005984454415738583,
          0.11389261484146118,
          0.07307940721511841,
          0.030046582221984863,
          -0.08154846727848053,
          0.11568006873130798,
          -0.02341040037572384,
          0.03980330750346184,
          -0.05818460136651993,
          -0.0015699078794568777,
          -0.12146540731191635,
          0.08813198655843735,
          0.0333627350628376,
          -0.10808268189430237,
          -0.0057691470719873905,
          -0.040036991238594055,
          -0.00984780304133892,
          0.0727110430598259,
          -0.09979251027107239,
          0.0011650801170617342,
          -0.043401364237070084,
          0.022776667028665543,
          -0.14369603991508484,
          0.00273955799639225,
          0.1419999748468399,
          0.12780781090259552,
          0.04311395063996315,
          0.07713241130113602,
          0.1325794905424118,
          0.03284698352217674,
          0.03368951007723808,
          -0.015444120392203331,
          0.11036695539951324,
          0.11981838196516037,
          -0.07131459563970566,
          0.02299398183822632,
          -0.014003709889948368,
          0.056751299649477005,
          -0.1351318359375,
          0.0017193659441545606,
          -0.03527160361409187,
          0.022769691422581673,
          0.040085457265377045,
          -0.036908864974975586,
          0.08498945087194443,
          0.052131496369838715,
          -0.12326281517744064,
          0.11622785031795502,
          0.10979179292917252,
          0.05901500582695007,
          -0.006148463115096092,
          0.0677892342209816,
          -0.03507821261882782,
          -0.052694473415613174,
          0.04541349038481712,
          0.051914412528276443,
          0.03737638518214226,
          -0.09975247085094452,
          0.05999087914824486,
          -0.09549178183078766,
          0.07553093135356903,
          0.09808073937892914,
          0.06315799802541733
        ],
        [
          0.09991487115621567,
          0.048645272850990295,
          0.07461231201887131,
          -0.032023269683122635,
          0.12163237482309341,
          -0.04459034278988838,
          0.00294750789180398,
          -0.10713446885347366,
          0.12641814351081848,
          0.12944363057613373,
          -0.1004488542675972,
          0.11193178594112396,
          -0.05885988101363182,
          -0.0875081866979599,
          -0.07107970118522644,
          0.0329875648021698,
          -0.13151095807552338,
          -0.12236278504133224,
          -0.02635803073644638,
          0.03372190147638321,
          -0.03828711062669754,
          -0.03709946572780609,
          -0.0200667604804039,
          -0.0249018557369709,
          -0.077424056828022,
          0.047416139394044876,
          -0.205630362033844,
          -0.1121755838394165,
          -0.04003487154841423,
          -0.1066291332244873,
          -0.030685529112815857,
          -0.064433254301548,
          -0.0012645103270187974,
          0.042866840958595276,
          -0.09716998785734177,
          0.06206998974084854,
          -0.09447570145130157,
          -0.02415924146771431,
          -0.12182548642158508,
          -0.03267963230609894,
          -0.04284771531820297,
          -0.1287507712841034,
          -0.019088488072156906,
          0.005944434087723494,
          0.13643792271614075,
          0.10764006525278091,
          -0.019739627838134766,
          0.06039576232433319,
          0.03909314051270485,
          -0.01881016604602337,
          0.004319672007113695,
          -0.12620191276073456,
          -0.0917854979634285,
          -0.13178347051143646,
          -0.007531852461397648,
          -0.014227272942662239,
          0.1348283886909485,
          0.0625891461968422,
          0.01513705961406231,
          0.013775758445262909,
          -0.15385864675045013,
          -0.03126037120819092,
          0.050712279975414276,
          -0.058196961879730225
        ],
        [
          0.05425534397363663,
          -0.04644746333360672,
          -0.08133348822593689,
          0.13927467167377472,
          0.05803399160504341,
          -0.057802580296993256,
          0.028992464765906334,
          0.07908286899328232,
          -0.06863280385732651,
          0.04327717423439026,
          -0.012960968539118767,
          -0.017209012061357498,
          0.13787606358528137,
          -0.07215959578752518,
          0.06726778298616409,
          -0.05870205909013748,
          -0.09895940870046616,
          0.10034948587417603,
          -0.03589986637234688,
          0.04883682727813721,
          0.07674942910671234,
          -0.11287669092416763,
          -0.15835188329219818,
          0.05576177313923836,
          0.11440226435661316,
          0.007945048622786999,
          0.06919877976179123,
          0.044072382152080536,
          0.016011031344532967,
          -0.08229850977659225,
          0.11238107085227966,
          0.047752745449543,
          0.0513058602809906,
          0.11682328581809998,
          -0.08021888881921768,
          0.04034648835659027,
          -0.05380606651306152,
          -0.061190564185380936,
          0.02325141802430153,
          0.06487614661455154,
          0.04673067480325699,
          -0.0915060043334961,
          -0.05770789831876755,
          0.017235690727829933,
          -0.045323446393013,
          -0.11983972042798996,
          0.1353583186864853,
          0.021592270582914352,
          -0.07979115098714828,
          0.024316105991601944,
          0.06947918236255646,
          -0.05523695424199104,
          0.025649694725871086,
          -0.09005783498287201,
          0.05814698711037636,
          0.14895479381084442,
          0.07769481837749481,
          0.09953185170888901,
          -0.03399159759283066,
          0.042811259627342224,
          0.05651224032044411,
          0.05685039609670639,
          0.0045291404239833355,
          0.02877003140747547
        ],
        [
          -0.17975735664367676,
          -0.05079643428325653,
          -0.1467149406671524,
          -0.06697403639554977,
          -0.046273041516542435,
          0.1182110533118248,
          0.007679495960474014,
          -0.11132806539535522,
          -0.028252985328435898,
          0.058056801557540894,
          -0.08044970780611038,
          -0.0010826815851032734,
          -0.03358849883079529,
          -0.04106123372912407,
          0.011756428517401218,
          0.006033235229551792,
          0.06841380149126053,
          0.09768123924732208,
          0.11122122406959534,
          0.02182338945567608,
          -0.05720870569348335,
          0.006410234607756138,
          -0.15594817698001862,
          0.045638155192136765,
          -0.05790327489376068,
          -0.01895577646791935,
          -0.11832797527313232,
          0.048687346279621124,
          0.04897642880678177,
          0.09632465988397598,
          -0.056593894958496094,
          0.03733093664050102,
          0.042563341557979584,
          -0.052624739706516266,
          -0.02315986156463623,
          -0.006401766091585159,
          -0.08868952095508575,
          0.012594975531101227,
          0.019472181797027588,
          0.0462937131524086,
          0.08609714359045029,
          0.04356470704078674,
          0.06466424465179443,
          0.07125485688447952,
          -0.0936141163110733,
          -0.1724463701248169,
          -0.02352730557322502,
          0.07203129678964615,
          0.08034127205610275,
          0.05385435000061989,
          -0.03153284639120102,
          -0.036226846277713776,
          -0.10420755296945572,
          0.03891058638691902,
          -0.07700525969266891,
          -0.0311431922018528,
          0.08110231906175613,
          0.06025761738419533,
          -0.09614604711532593,
          -0.06469184160232544,
          -0.1043885350227356,
          0.12161505222320557,
          -0.08905567973852158,
          0.1439713090658188
        ],
        [
          0.12200602889060974,
          0.07888410985469818,
          -0.03619108349084854,
          0.18799830973148346,
          0.027410054579377174,
          0.16886450350284576,
          0.09350775927305222,
          -0.32352662086486816,
          0.11262218654155731,
          0.04506431147456169,
          -0.11471998691558838,
          0.03676870837807655,
          -0.046440672129392624,
          -0.06829901784658432,
          -0.08168922364711761,
          0.027744997292757034,
          -0.09688284248113632,
          -0.036338839679956436,
          0.015774056315422058,
          0.15019626915454865,
          0.04050777480006218,
          -0.08852741122245789,
          -0.07363736629486084,
          -0.09442223608493805,
          -0.1409195512533188,
          -0.08360598236322403,
          0.07474931329488754,
          -0.11184439808130264,
          0.005266803782433271,
          -0.01714254356920719,
          -0.11546674370765686,
          0.0005393896717578173,
          -0.00450741546228528,
          -0.028743885457515717,
          0.07738768309354782,
          0.09310633689165115,
          0.06588104367256165,
          0.025097914040088654,
          -0.03216976672410965,
          0.048730988055467606,
          -0.038781244307756424,
          0.0488910935819149,
          0.04894885793328285,
          -0.08052040636539459,
          -0.036191634833812714,
          -0.13522495329380035,
          -0.1474073976278305,
          0.004663461819291115,
          -0.028777508065104485,
          -0.12082038074731827,
          0.038973189890384674,
          -0.16387318074703217,
          -0.10285228490829468,
          0.0552024245262146,
          -0.20894405245780945,
          0.004952223971486092,
          0.08725354075431824,
          0.08959431946277618,
          0.03165449574589729,
          0.010124067775905132,
          -0.048133280128240585,
          -0.08303365111351013,
          0.01627199724316597,
          0.08165156841278076
        ],
        [
          -0.06470007449388504,
          -0.08091706782579422,
          -0.1101633831858635,
          0.08697528392076492,
          0.012745290994644165,
          0.11069749295711517,
          0.01191877294331789,
          -0.06457387655973434,
          0.031871046870946884,
          0.09996449202299118,
          0.05427328497171402,
          0.033025965094566345,
          -0.11441876739263535,
          -0.09538186341524124,
          0.06539411097764969,
          -0.10922405123710632,
          0.006973700597882271,
          -0.001334230531938374,
          0.05742452293634415,
          0.03257108852267265,
          -0.11078179627656937,
          -0.05210190638899803,
          0.12439829856157303,
          0.021571731194853783,
          0.0695565864443779,
          -0.08675353229045868,
          0.08717168867588043,
          -0.03589356318116188,
          -0.06972073018550873,
          -6.748895248165354e-05,
          -0.06908438354730606,
          -0.07116333395242691,
          -0.018737902864813805,
          -0.0119206877425313,
          -0.06959953159093857,
          0.04021844640374184,
          -0.1307491511106491,
          0.03992779552936554,
          0.1051730364561081,
          0.0076892683282494545,
          -0.03886063024401665,
          -0.12508180737495422,
          0.03990796580910683,
          0.08532487601041794,
          0.09589671343564987,
          -0.009700433351099491,
          0.028595438227057457,
          0.10069655627012253,
          0.023680061101913452,
          -0.08169246464967728,
          -0.1374381184577942,
          0.027481073513627052,
          0.0234756451100111,
          0.07642818987369537,
          -0.08637774735689163,
          0.04952521249651909,
          -0.10907839983701706,
          -0.03272172063589096,
          0.05823710560798645,
          -0.10827753692865372,
          0.1076016053557396,
          0.07240573316812515,
          -0.1678168773651123,
          0.04839390143752098
        ],
        [
          -0.03199663385748863,
          0.024049565196037292,
          -0.07021047919988632,
